svm_type c_svc
kernel_type linear
nr_class 2
total_sv 81
rho 1.2509311482753709
label 1 -1
nr_sv 40 41
SV
0.726572152555286 0:-0.07363364245108299 1:-0.4739399729845483 2:0.08406702187135012 3:-0.4031940761030424 4:0.5926738194314658 5:0.831485455175187 6:-0.4580728225911617 7:0.23330069141517534 8:0.15817199799246387 9:0.15668745513182766 
0.726572152555286 0:-0.1594036229579057 1:-0.1222339362391415 2:1.2926514699089806 3:0.6106755494170687 4:0.4878424611816937 5:0.23776518876224698 6:-0.18572065180072075 7:-0.31225304562792333 8:-0.34574347745812656 9:-0.382735963025699 
0.726572152555286 0:-0.24907223894231104 1:0.12842223173986106 2:0.49285726147152653 3:-0.007909748779879952 4:0.47052249764477494 5:0.37097165879079114 6:-0.3958289448820744 7:-0.03292953226185681 8:0.9310744218582189 9:0.1875832236640699 
0.726572152555286 0:-0.37577789196375366 1:-0.13142028794517827 2:0.12184447299585403 3:0.15991272001346263 4:0.3930384502427695 5:0.19209439903817463 6:0.11113476496569565 7:-0.13112920492961455 8:-0.31988890940343423 9:-0.30841911439408926 
0.726572152555286 0:0.207068111934882 1:-0.08680086537299973 2:-0.17728826256198812 3:-0.09528838955657921 4:-0.08736264364966444 5:0.07030562644064857 6:-0.30570206313135967 7:0.34568476124605363 8:1.4794895865567894 9:0.48234555587708366 
0.726572152555286 0:-0.5278246755894846 1:-0.20622343755147737 2:0.1533011832707327 3:-0.6944562120253724 4:0.30643863255817516 5:0.35194216307242765 6:-0.3701991128842149 7:0.142738771066021 8:-0.2032947515414081 9:-0.14475504325031957 
0.09163070862412805 0:-0.30950108884484523 1:-0.4056985031682753 2:0.42171217841993164 3:-0.5446642564081742 4:0.7585808385745836 5:0.9551771773445498 6:0.017346478643858146 7:0.10782333189526265 8:-0.24307101008708865 9:-0.20821662185708742 
0.726572152555286 0:-0.011255474809757388 1:-0.26002921182969263 2:0.5672362119345574 3:-0.5724035074483961 4:-0.3626589061838486 5:-0.6433004629979814 6:0.6606270971395841 7:-0.5053790685411802 8:-0.22989512444383198 9:-0.1835835091084078 
0.726572152555286 0:-0.4946862740300304 1:-0.29152527482181867 2:0.23062001319870576 3:0.1765562706375958 4:0.7193830263594513 5:0.5688784142617713 6:0.5054398726250723 7:-0.0983959807070286 8:-0.24232520523935713 9:-0.20571155954366238 
0.726572152555286 0:-0.20618724868889968 1:-0.7639662197037084 2:-0.3616187050138476 3:0.643962650665335 4:0.3255817501516117 5:-0.4035288169466017 6:-0.8380421231220653 7:-0.14858692451499372 8:-0.08645199206347148 9:-0.13765736669561532 
0.726572152555286 0:0.0667172347418994 1:-0.9910003404386166 2:-0.30311510366150307 3:0.7299543288900228 4:0.6883894073986491 5:0.7743969680200965 6:0.5200854909095634 7:-0.039476177106374 8:-0.2020517434618556 9:-0.09882890083752702 
0.726572152555286 0:0.053072010570359644 1:0.20585005326217098 2:-0.07924328240617454 3:-0.08141876403646825 4:-0.06821952605622787 5:0.04747023157861238 6:-0.3507655040067171 7:-0.013289597728305243 8:-0.3417658516035585 9:-0.3238669986602104 
0.726572152555286 0:0.07061587021948225 1:0.10611252045377194 2:0.9829351682773475 3:-0.03564899982010189 4:0.10680326336947865 5:0.2491828861932651 6:-0.12544829962993032 7:-0.07657383122530463 8:-0.30994484476701406 9:-0.26833811737928853 
0.726572152555286 0:0.031629515443653965 1:-0.16947803072733036 2:-0.22814817730548365 3:-0.18821488054132257 4:0.21163462161925076 5:-0.03625954958218693 6:-0.30626535614230166 7:-0.4606436621036462 8:-0.34499767261039505 9:-0.4031939719186702 
0.28742073366028376 0:-0.6759728237376327 1:-0.7101604454254932 2:0.5669422239880633 3:-0.12164067804478991 4:-0.19766346406898988 5:-0.2132338597629671 6:-0.7825295968937345 7:-0.13985806472230414 8:0.25487802658164965 9:0.03602695370185462 
0.726572152555286 0:0.051122692831568214 1:-0.34926805697404956 2:-0.36441159050554245 3:0.45256181848780364 4:0.3620448312819673 5:0.36526281007528233 6:-0.6146682796330284 7:0.13510101874741773 8:0.503479642492153 9:0.1107613127190352 
0.726572152555286 0:-0.21008588416648252 1:-0.08023918558297348 2:1.4455252020859612 3:0.3873745785432822 4:-0.26967804930144207 5:-0.2170397589066398 6:-0.7901340525414511 7:0.05108574324278034 8:-0.2229342791983379 9:-0.14016242900904036 
0.726572152555286 0:-0.7422496268565412 1:-0.10254889686906274 2:1.542541224429045 3:-0.19792361840540024 4:-0.08098160445185222 5:0.2491828861932651 6:-0.22993915315966515 7:-0.14640470956682133 8:-0.1886272562026884 9:-0.13515230438219028 
0.726572152555286 0:0.7041441353266947 1:0.5706794495876303 2:-0.23152903869016686 3:-0.26033693324589946 4:-0.060926909830156764 5:0.09884987001819379 6:-0.5743928293506778 7:0.0030770143829877317 8:-0.23461855514613156 9:-0.18107844679498275 
0.726572152555286 0:0.3766587552097358 1:-0.20228642967746163 2:-0.1661167205952088 3:0.07669496689279681 4:-0.1630235369951522 5:-0.0705126418752412 6:-0.351328797017659 7:-0.18241125621166587 8:-0.1595408671411595 9:-0.07795338155898504 
0.726572152555286 0:-0.3777272097025451 1:0.04443273042752531 2:0.9200217477275899 3:0.3360569641188718 4:0.05302021870220422 5:-0.2132338597629671 6:0.02466928778610378 7:1.0865467361505816 8:1.5893715007892317 9:1.4664175346675563 
0.726572152555286 0:-0.5746083013204788 1:-0.3781394480501651 2:0.9494205423770092 3:-0.325524173190421 4:0.015645560543589888 5:-0.06290084358789581 6:0.17591346122402182 7:1.1203710678472538 8:0.8540079209259629 9:1.0981733745940743 
0.726572152555286 0:-0.1749981648682371 1:0.12710989578185594 2:-0.2531371527574901 3:-0.24785427027779958 4:0.040258140306579884 5:0.06079087858146682 6:-0.4837026545890212 7:-0.05366057426949458 8:-0.21423322264147024 9:-0.1885936337352579 
0.726572152555286 0:0.06086928152552534 1:0.232096772422276 2:1.1280182198722322 3:-0.22566286944562217 4:0.054843372758722 5:0.12168526488022996 6:-0.837366171508935 7:-0.26860874666447543 8:-0.28409027671232173 9:-0.3125942182497977 
0.726572152555286 0:0.019933609010905413 1:-0.4017614952942596 2:0.8538744597663964 3:-0.8484090552986041 4:0.015645560543589888 5:0.40141885194017274 6:-0.020112506583782642 7:0.007441444279332404 8:-0.08222576459299295 9:0.03853201601527967 
0.726572152555286 0:-0.15550498748032285 1:-0.27840191524176616 2:0.6078065485507563 3:-0.4822509415676748 4:-0.05910375577363899 5:-0.12379522988665874 6:-0.27218612898031275 7:0.9752537737937895 8:0.4336225884213017 9:0.8401519563112947 
0.726572152555286 0:-0.24127496798714534 1:0.31739860969261713 2:0.4342066661459349 3:-0.296397959598188 4:-0.21589500463416764 5:-0.21894270847847613 6:0.06550803107939637 7:-0.058025004165839375 8:-0.17072793985713214 9:-0.11260674356136484 
0.726572152555286 0:-0.19838997773373399 1:0.15991829473198707 2:-0.3577968617094231 3:-0.2797544089740548 4:-0.16120038293863442 5:-0.22274860762214885 6:0.07226754721069997 7:0.6828369707386888 8:0.2501545958793502 9:0.7032085498440586 
0.726572152555286 0:-0.0073568393321745374 1:-0.3558297367640758 2:1.1147887622799932 3:-0.6056906086966622 4:-0.07824687336707555 5:0.05317908029412143 6:-0.23529043676361386 7:-0.7279649932547644 8:-0.3686148261218929 9:-0.44953762471703357 
0.726572152555286 0:-0.10677204401053722 1:0.22684742859025497 2:0.803308532969395 3:0.2445174356861394 4:0.10042222417166634 5:-0.07241559144707754 6:-0.21557518138064508 7:-0.6439497177501273 8:-0.35568754209454667 9:-0.42657455351063733 
0.726572152555286 0:-0.6116453383575159 1:0.2885272186165016 2:1.2162146038204902 3:0.326348226254794 4:-0.11379837746917221 5:-0.1732719187544038 6:-0.037856236428454516 7:0.618461629767603 8:0.8405834336667957 9:0.6255516181278822 
0.726572152555286 0:-0.02295138124250594 1:0.015561339351409801 2:-0.21756461123169266 3:-0.4267724394872309 4:-0.14570357345823332 5:-0.0743185410189139 6:-0.1738914985709395 7:-0.03183842478777062 8:-0.02082116546309858 9:0.032269360231717 
0.726572152555286 0:-0.26466678085264245 1:0.05493141809156731 2:-0.15906100987934813 3:-0.5807252827604626 4:0.07672122143693533 5:0.007508290570049074 6:-0.5946713777445886 7:-0.42681933040697406 8:-0.31218225931020865 9:-0.3501701529511734 
0.726572152555286 0:0.09985563630135363 1:0.0037503157293624 2:0.1272832500059966 3:-0.2936240344941658 4:0.2809144757669263 5:0.6545111449944068 6:0.030302217895523453 7:0.05545017313912513 8:-0.11976460859547898 9:-0.05123271688245119 
0.2759091035763039 0:-0.08532954888383154 1:-0.49362501235462697 2:-0.25254917686450173 3:-0.0980623146606014 4:0.4732572287295515 5:0.12929706316757536 6:-0.7659124530709465 7:0.745030096761602 8:0.29017945604094125 9:0.49487086744420883 
0.726572152555286 0:-0.08727886662262296 1:-0.01331005172470571 2:0.26825047034996247 3:0.512201208224281 4:-0.0499879854910501 5:0.055082029865957775 6:-0.0753152216560953 7:0.9730715588456171 8:0.606152109863191 9:0.9002734518334955 
0.726572152555286 0:0.20511879419609036 1:0.22028574880022858 2:1.0706905703058642 3:-0.22150198178958888 4:-0.3061411304317975 5:-0.4415878083833287 6:-0.16797692195604888 7:0.08163675251719389 8:0.3500924454753725 9:0.3654426479172483 
0.726572152555286 0:-0.42061219995595645 1:-0.08417619345698923 2:0.7436289798310738 3:0.07530800434078556 4:-0.061838486858415656 5:0.1978032477536837 6:-0.08460955633663773 7:-0.29588643351663035 8:-0.2962717558919364 9:-0.3188568740333603 
0.726572152555286 0:0.05891996378673392 1:-0.0028113640606637065 2:0.2389986696737902 3:-0.3407807612625431 4:-0.15117303562778664 5:-0.24748695205602136 6:-0.2003662700852119 7:-0.037293962158201605 8:-0.16401569622754858 9:-0.08338101657140594 
0.726572152555286 0:4.4043162299116324E-4 1:0.10873719236978244 2:-0.19051772015422686 3:0.2209390723019506 4:-0.17760876944729442 5:-0.1808837170417492 6:-0.17755290314206226 7:0.032536916183315084 8:-0.14089574594787174 9:-0.07837089194455583 
-0.726572152555286 0:0.4331889696346869 1:0.2740915230784437 2:1.0083651256490953 3:-0.6486864478090063 4:0.12685795799117422 5:0.310077272492028 6:-0.7822479503882636 7:0.2649428081636752 8:0.6250458326723891 9:0.18048554710936557 
-0.1374888893388904 0:-0.4966355917688218 1:0.14417026323592405 2:-0.24564046012188817 3:-0.060614325756301636 4:-0.05181113954756788 5:-0.07622149059075024 6:-0.2037460281508637 7:0.060905710509556246 8:0.3217518612615751 9:0.23601442839028744 
-0.726572152555286 0:-0.35628471457583943 1:-0.06974049791893148 2:0.24943524177433404 3:-0.5405033687521409 4:0.1368853053020219 5:0.5879079099801349 6:-0.010536525397769139 7:-0.11476259281832157 8:-0.23238114060293702 9:-0.19443877913324967 
-0.726572152555286 0:-0.07948159566745727 1:-0.18128905434937762 2:-0.37602411439206307 3:-0.5307946308880632 4:0.16879050129108308 5:0.534625321968717 6:-3.9725120081372843E-4 7:0.20165857466667572 8:1.4824728059477157 9:0.3980084579917738 
-0.726572152555286 0:-0.3426394904042994 1:-0.2298454847955719 2:0.7152591429943842 3:0.3332830390148496 4:-0.19128242487117764 5:-0.4625202536735285 6:0.24294532952611583 7:-0.260970994345872 8:-0.36140537926048827 9:-0.4052815238465244 
-0.61593370414869 0:0.10375427177893648 1:0.2780285309524596 2:1.5836995369382323 3:1.137721319181285 4:-0.11106364638439555 5:-0.6052414715612544 6:0.24153709699876097 7:-0.7334205306251955 8:-0.41062849921076794 9:-0.5335824653324439 
-0.726572152555286 0:0.17782834585301063 1:-0.4870633325646007 2:-0.22432633400105914 3:-0.22150198178958888 4:0.5206592341990137 5:0.4204483476585362 6:-0.5397503091777468 7:-0.553387797400973 8:-0.19906852407092956 9:-0.1347347939966194 
-0.726572152555286 0:-0.3056024533672624 1:-0.12617094411315724 2:1.2147446640880193 3:-0.1244146031488121 4:-0.060926909830156764 5:0.1312000127394117 6:-0.6087537030181378 7:-0.11476259281832157 8:-0.25823570865762935 9:-0.19109869604868293 
-0.726572152555286 0:-0.39722038709045937 1:0.3147739377766066 2:1.0310021975291481 3:-0.3310720233984654 4:0.011087675402295443 5:-0.11998933074298604 6:0.04917253376207926 7:0.7974032555177395 8:0.8480414821441108 9:1.025526567504748 
-0.726572152555286 0:-0.10287340853295436 1:0.04705740234353581 2:0.7771436057314118 3:-0.060614325756301636 4:0.016557137571848776 5:0.1711619537479748 6:0.28744547739053117 7:0.3315003640829332 8:0.12038455237406732 9:0.3199340158900266 
-0.726572152555286 0:-0.18669407130098542 1:0.5273723629734569 2:1.26178273552709 3:0.252839210998206 4:-0.06548479497145121 5:0.0322466350039216 6:-0.16347057786851313 7:-0.48683024148171483 8:-0.33033017727167535 9:-0.36937563068743207 
-0.726572152555286 0:-0.38357516291891935 1:-0.525121075346753 2:-0.3178145009862127 3:0.2597740237582613 4:0.05666652681523978 5:0.2415710879059197 6:0.2789960822264016 7:0.5060775599367247 8:0.07563626151017677 9:0.3207690366611682 
-0.726572152555286 0:0.3220778585235759 1:0.4919392921073153 2:0.9088502057608105 3:0.4317573802076373 4:-0.08462791256488778 5:-0.10095983502462257 6:-0.07503357515062435 7:0.7974032555177395 8:0.5111862925853787 9:0.678575437095379 
-0.726572152555286 0:0.01798429127211399 1:-0.2245961409635509 2:1.0736304497708062 3:0.06976015413274117 4:-0.1302067639778322 5:-0.2570016999152031 6:-0.31358816528454725 7:0.10236779452483179 8:-0.11727859243637394 9:-0.03077470798948001 
-0.726572152555286 0:-0.46934514342574185 1:-0.1222339362391415 2:0.5137304056726142 3:0.26948276162233914 4:0.054843372758722 5:0.036052534147594295 6:0.24491685506441277 7:-0.2260555551751137 8:-0.22218847435060637 9:-0.2637455031380093 
-0.726572152555286 0:-0.37577789196375366 1:0.10217551257975604 2:0.26178273552709025 3:-0.39625926334298694 4:-0.09465525987573555 5:-0.20371911190378536 6:-0.19867639105238605 7:-0.4224549005106293 8:-0.30472421083289347 9:-0.34223745562532737 
-0.5833928995034989 0:0.45658078250018397 1:0.0313093708474728 2:0.3307229089799786 3:0.08085585454882994 4:-0.07824687336707555 5:-0.02103595300749615 6:-0.39977199595866814 7:0.0019859069089015334 8:-0.19036746751406194 9:-0.1480951263348863 
-0.726572152555286 0:0.09400768308497935 1:-0.15897934306328837 2:-0.28694576660432236 3:-0.5405033687521409 4:0.26906397439956065 5:0.3728746083626277 6:0.0387516130596529 7:0.3489580836683124 8:0.004536199359772736 9:0.1550174135895443 
-0.6204750282091159 0:-0.017103428026131663 1:-0.2429688443756244 2:-0.35338704251201014 3:-0.19792361840540024 4:0.018380291628366553 5:0.2872418776299918 6:-0.03109672029715091 7:0.6577414988347061 8:0.5228705685331724 9:0.8994384310623539 
-0.726572152555286 0:0.012136338055739713 1:0.020810683183430802 2:0.07216051003833528 3:-0.715260650305539 4:0.13232742016072754 5:0.26440648276795586 6:0.0066439114359608305 7:0.3074959996530368 8:0.001055776737025685 9:0.1884182444352116 
-0.726572152555286 0:0.4799725953656811 1:0.05493141809156731 2:0.6282387108321027 3:0.3707310279191491 4:0.11227272553903199 5:0.19019144946633829 6:-0.2702146034420158 7:-0.09948708818111479 8:-0.23735317292114708 9:-0.20821662185708742 
-0.4145700568307156 0:0.06866655248069083 1:-0.29152527482181867 2:-0.2360858518608269 3:-0.6902953243693392 4:-0.010790173275917886 5:0.04747023157861238 6:-0.32710719754715445 7:-0.3809928164953537 8:-0.30447560921698297 9:-0.3334697375283397 
-0.43850761237715785 0:0.14079130881597354 1:-0.3046486344018712 2:-0.356179928003705 3:0.3513135521909937 4:0.1350621512455041 5:0.31959202035121 6:-0.26289179429977017 7:-0.16931796652263148 8:-0.2455570262461937 9:-0.2265870788222044 
-0.26972461682618193 0:-0.3387408549267166 1:0.3620180322647956 2:0.4015740040850793 3:-0.8622786808187151 4:-0.08280475850836999 5:-0.1884955153290946 6:-0.03278659932997687 7:0.08600118241353868 8:-0.04244950604731237 9:0.14123957086570657 
-0.726572152555286 0:-0.030748652197671637 1:-0.22590847692155613 2:1.1324280390696448 3:-0.282528334078077 4:-0.28699801283836096 5:-0.4472966570988377 6:-0.31049005372436644 7:-0.3417129474282506 8:-0.30298399952151994 9:-0.3518401944934567 
-0.726572152555286 0:-0.22762974381560536 1:0.3108369299025907 2:0.9059103262958687 3:0.2625479488622835 4:0.030230792995732107 5:0.21683274347204715 6:-0.14403696899101529 7:-0.6745007270245409 8:-0.3586707614854727 9:-0.4424399481623293 
-0.726572152555286 0:-0.6545303286109272 1:-0.44244390999242234 2:-0.38910657801105475 3:-0.3352329110544987 4:-0.23321496817108653 5:-0.5081910433976009 6:-0.2079707257329285 7:0.142738771066021 8:0.06469779041011461 9:0.1049161673210434 
-0.726572152555286 0:-0.2880585937181395 1:0.10611252045377194 2:0.616332198999088 3:0.3332830390148496 4:0.12047691879336189 5:0.01892598800106716 6:0.2043597582765911 7:-0.31661747552426817 8:-0.27762663469864857 9:-0.3217794467323562 
-0.4811563488476089 0:-0.05024182958558589 1:0.16385530260600295 2:-0.2632797369115398 3:-0.3269111357424321 4:-0.12017941666698442 5:-0.19420436404460362 6:-0.26796143139824796 7:0.17110756539226216 8:1.3375380638718921 9:0.5391269683147181 
-0.726572152555286 0:0.019933609010905413 1:-0.46606595723651684 2:-0.03294018083333903 3:-0.5432772938561631 4:-0.10377103015832444 5:0.08552922301533934 6:-0.06602088697555288 7:0.09254782725805588 8:-0.1498454041206499 9:-0.10634408777780217 
-0.726572152555286 0:0.14663926203234784 1:-0.27708957928376093 2:1.2632526752595612 3:-0.3158154353263433 4:-0.10377103015832444 5:0.03034368543208525 6:-0.2147302418642321 7:0.5235352795221039 8:0.4321309787258386 9:0.7115587575554754 
-0.726572152555286 0:-0.0814309134062487 1:-0.18785073413940387 2:0.33630867996336833 3:-0.3810026752708649 4:-0.09465525987573555 5:-0.041968398297695976 6:-0.182059247229598 7:0.23766512131152012 8:0.26159027021123327 9:0.3491597428799854 
-0.726572152555286 0:-0.0814309134062487 1:-0.11304758453310475 2:-0.37043834340867343 3:-0.1757322175732227 4:0.23351247029746408 5:0.4090306502275181 6:-0.19698651201956008 7:0.9370650122007727 8:0.5380352671037131 9:0.6823330305655166 
-0.726572152555286 0:-0.12431590365966004 1:-0.3085856422758869 2:0.8998835733927376 3:1.1169168809011185 4:-0.045430100349755656 5:-0.09144508716544082 6:-0.8011182662548194 7:-0.5719366244604384 8:-0.3375396241330799 9:-0.39275621227939916 
-0.726572152555286 0:-0.4264601531723305 1:0.6992883734721446 2:0.4140684918110825 3:-0.5959818708325846 4:-0.011701750304176774 5:-0.0743185410189139 6:-0.17079338701075863 7:0.20711411203710658 8:0.09651879724665897 9:0.20094355600233685 
-0.726572152555286 0:-0.08338023114504012 1:-0.24690585224964015 2:0.311466698484609 3:0.6106755494170687 4:-0.06821952605622787 5:0.07411152558432126 6:-0.2614835617724153 7:-0.31989079794652675 8:-0.2830958702486797 9:-0.29297123012796816 
-0.726572152555286 0:-0.17694748260702853 1:-0.2272208128795614 2:-0.05028546967649644 3:-0.09944927721261235 4:-0.04269536926497899 5:-0.02103595300749615 6:-0.13727745285971168 7:0.03690134607965988 8:-0.1100691455749693 9:-0.09465379698181861 
-0.726572152555286 0:-0.02295138124250594 1:0.010311995519388798 2:-0.2907676099087469 3:0.17239538298156235 4:0.111361148510773 5:0.21873569304388352 6:-0.24064172036756257 7:0.2671250231118476 8:0.4331253851894806 9:0.5182514490361759 
-0.726572152555286 0:-0.11456931496570291 1:-0.3689530963441283 2:-0.3863136925193599 3:-0.7859957404581047 4:0.030230792995732107 5:0.2853389280581557 6:-0.07587851466703734 7:0.14928541591053818 8:-0.12796846192052558 9:-0.05624284150930129 
-0.726572152555286 0:-0.34458880814309084 1:0.11267420024379804 2:-0.13906982951774297 3:0.40540509171942635 4:0.08036752954997088 5:0.2606005836242832 6:-0.3778035685319314 7:-0.07984715364756322 8:-0.0809827565134404 9:-0.008646657554225367 
-0.726572152555286 0:-0.04439387636921161 1:-0.3098979782338922 2:-0.38866559609131346 3:-0.17989310522925597 4:0.12594638096291522 5:0.3538451126442642 6:-0.5479180578364053 7:0.23657401383743407 8:-0.03200823817907127 9:0.05356238989582996 
